{"topology":[6,6,4,2],"layers":[{"curentActivationFunction":0,"nodeCount":6,"outputCount":6,"Weights":[[-3.3114559558739209,-1.8255419040527461,-0.64556822421265381,-5.1114786853263778,1.8048134156525202,0.46509632298674386],[-1.8447087604295036,-5.3898172779745162,-0.9517668110866051,3.8849344071396326,-1.2075309179338176,4.2373237669176067],[2.1997299756387858,1.7701079985973214,0.20004264891655238,4.8695390612676457,1.047291811507622,5.3412618112476826],[2.8483632484172929,-3.4682200029634789,-1.2825142083504333,-0.48787314938570914,3.2584799296494951,-2.6021074586560977],[1.2188890841221121,0.65242462200249451,-3.055046721542173,-4.1154408045647806,-1.3495758933542477,0.556057885230558],[-3.3822289411733331,-0.52530247453532486,-1.1849735831350148,-0.82000720855565823,-0.16265069537919508,-0.31764858440386556],[-0.36048701538726985,5.0991496385578721,4.4940514271119847,1.8567168008940742,-0.94167041485485958,3.3524596346808035]]},{"curentActivationFunction":0,"nodeCount":6,"outputCount":4,"Weights":[[-4.6650422247841679,-0.32554168452275867,4.88256588995525,5.2194019967873038],[-1.5650937804324061,6.18634410929647,-1.0689162716986154,-2.799301972470511],[5.2221399554879584,1.5253357180256788,-4.3869020217624888,-0.15691553575164813],[-0.34020071422690534,-4.5848198182857063,1.1215751572330583,-1.3982022804665393],[4.3031136273886617,-1.4720976039218134,1.1927476526540837,2.1528943329664925],[-2.5725850025529904,5.1283324792181766,-4.6923631668729486,3.3519340332193597],[4.1508238994793709,-4.6240094220843213,-6.0869199874829141,-5.3382975214881139]]},{"curentActivationFunction":0,"nodeCount":4,"outputCount":2,"Weights":[[1.559791703115156,4.0025120979676956],[1.7689050526362911,-5.3217193123016733],[2.6860328566683611,-0.94433127902260416],[-3.2115053360869674,2.4869029138029859],[6.8458235986312479,-1.6506243194954298]]}]}