{"topology":[6,6,4,2],"layers":[{"curentActivationFunction":0,"nodeCount":6,"outputCount":6,"Weights":[[1.1884362100957335,-2.1095402314940221,3.7213353340609374,1.4738300578453534,-2.4928940361677165,-3.3106706226496208],[6.79204633790651,-4.0428183156682076,1.68878165095995,1.9648545814600937,-0.79439823272619758,-4.0974222892865679],[-7.2030611912833109,-4.3184705278544655,3.518444374024019,-6.0191998250400047,1.8098962119458459,-7.2445401239340557],[7.7696090377002269,5.1755561848942424,-8.4664990866667118,0.71654577516589457,3.5263351866870583,0.39813830869572087],[-2.6281471851516418,-2.056664673861444,1.987318968460335,3.1925060993658625,2.967735518863865,-4.97153232434825],[-2.8521074082262405,-5.402717048554905,-2.0106427234774147,0.46706276119501977,5.07992172551141,-6.0640478404643749],[0.73180868138177679,-3.6634179272951681,-2.560022251266393,6.1965768033517872,-2.6986157591405018,4.7991502249773745]]},{"curentActivationFunction":0,"nodeCount":6,"outputCount":4,"Weights":[[-0.31387298088558113,-7.2198688982055863,-0.0046416467542944595,-2.069072149940888],[5.5623965635536727,6.2631830718662513,0.063024994624639952,4.2145208526470324],[-1.4235447896288449,-6.8426955859735505,3.1761346246208619,2.0524934717317733],[1.9068535659828507,4.18826763266973,5.2899608727497789,-0.038825069106568688],[-7.2551640883344994,-3.4685646958509371,-1.6605676458079452,0.89337797062163182],[6.46826901005966,1.5774546872516813,-5.1806635487642279,2.5758770061076546],[2.4884750775699662,-6.1584624816470139,-3.0718056063859391,1.1009586087849073]]},{"curentActivationFunction":0,"nodeCount":4,"outputCount":2,"Weights":[[-0.78809101792717984,1.198458487260369],[-1.2095805052185966,-4.4989521010160285],[4.5723196775682275,1.2494482072637914],[5.5357358672323844,0.6869192363939467],[2.8508934592612016,4.03523136874459]]}]}