{"topology":[6,6,4,2],"layers":[{"curentActivationFunction":0,"nodeCount":6,"outputCount":6,"Weights":[[-3.8058455166434149,-1.5598164519417712,-0.64556822421265381,-5.0226624381030529,1.8048134156525202,0.15592412443355974],[-2.1314535206795919,-5.5288727273220193,-0.9517668110866051,3.5315763892287282,-1.3851348754926154,4.2373237669176067],[2.6681263969131406,2.3688481120767513,0.26746347547430638,4.8695390612676457,1.1137466912452929,5.3412618112476826],[2.8483632484172929,-2.9721040809687538,-0.91893702903606167,-0.92966428377938581,3.14335307439014,-2.6021074586560977],[0.83185714203440586,-0.035705965424511765,-3.1085911006393703,-4.1154408045647806,-0.85418000128951044,0.70066204132451126],[-2.7365852232633356,-0.52530247453532486,-1.1275088894353005,-0.68255108477452109,-0.16265069537919508,-0.487923405360395],[-0.23529349650968467,4.2212859213493186,4.1320037842411566,2.0967524489978944,-0.47883693210005468,3.5567591752677128]]},{"curentActivationFunction":0,"nodeCount":6,"outputCount":4,"Weights":[[-4.2356739088539834,-0.67633504355596019,5.1487589230424078,5.2194019967873038],[-1.1630334244868876,6.3932377718492353,-1.5619160521528226,-2.5336827549286882],[5.2323505408074933,1.9163102247107116,-4.3441946523126109,0.053724817962765958],[-0.340247942293178,-4.1507286633647951,0.53868272135878414,-1.8831239640168493],[4.3031136273886617,-1.4720976039218134,0.60951865263367044,1.3310811806449654],[-2.5547600931277312,5.6089539907914379,-4.6923631668729486,3.3827858194914251],[3.4750777285936278,-4.270823467648972,-5.6745079080069019,-5.7884457034546886]]},{"curentActivationFunction":0,"nodeCount":4,"outputCount":2,"Weights":[[1.559791703115156,4.2215436087114888],[2.2615167796116444,-5.267746284073068],[2.7301576103689884,-0.48492118438545506],[-3.6460997237107255,2.5218159836206486],[6.5172006861886462,-1.88961046135358]]}]}