{"topology":[6,6,4,2],"layers":[{"nodeCount":6,"outputCount":6,"Weights":[[-0.20219366191988508,0.663496974000473,-1.0408902017124417,-0.054131104403236541,0.88886671973805265,-0.26868149976650324],[-1.3161409119219245,-0.48117872862200195,-0.90730253695850382,-0.67049994211201547,-0.17839023316204095,0.91995792622676031],[-0.0310171465533865,1.1825478387449626,-0.21451586448332105,-0.083008799274921774,-0.3216189773853958,-0.020499467393615967],[0.67541973650242193,0.493162287163158,0.70297998199378131,-0.6140013381903997,-0.68576399036020219,0.68037591766583549],[0.85129441523519089,0.59065392128688,0.88092702994166272,0.87379734491640582,0.13743341953374144,0.28184371571142408],[0.60843210369741185,0.33827497034253318,0.48996747168245136,0.49319602641891508,0.06769316134401282,0.43865473914828845],[0.22772820816735195,1.0660708460798816,-0.541982843327328,0.1417326611195377,0.49175363545853351,-0.27973044630127519]]},{"nodeCount":6,"outputCount":4,"Weights":[[0.052248103102784604,0.52333076345889407,-0.12476439453883303,0.59920764509551594],[-0.32011286510159864,-0.29161513843183184,0.40121510620285522,-0.90162217612453843],[-0.77299804509291337,-0.19378519020685236,0.34649354771081986,0.32302796785860688],[-0.53750044737826119,0.87919027818329187,-0.1224226903274761,-0.69953244631156908],[0.4225809580751605,-0.54978801941023581,0.50359029206614481,-0.35621306759128957],[-0.94531310440288541,0.24703864275805598,-0.64134131262141336,-0.4273264926985495],[-0.2456563120920473,0.57692612408517219,0.24661752290400574,0.51328625530623184]]},{"nodeCount":4,"outputCount":2,"Weights":[[-0.8883324772530854,-0.66979803222687817],[0.36907392617737589,1.0355785892045026],[0.44021528863358095,0.70921344156806043],[0.4191888363189944,0.45315486446635567],[0.21787636504409669,1.1263487355906276]]}]}