{"topology":[6,6,4,2],"layers":[{"curentActivationFunction":0,"nodeCount":6,"outputCount":6,"Weights":[[0.51285215817059027,-1.249384150407332,2.768149466158877,1.3407858139602185,0.77863353672653224,0.2273555478208491],[-0.50303046032927479,-0.793748988906736,-0.2058127963476874,1.972837736657457,-0.014461114310874268,0.56088232042308994],[-0.60690370556288564,0.21553683651090605,0.8490761266318505,-0.74965700774903277,-0.96092640234200577,0.65723570420278032],[-1.0874923964392786,0.30934722386735825,0.56378841521525291,-0.72765608026071271,-0.522502502204153,-0.24544661839292869],[-0.0098957580454950289,0.59472324866555781,0.68110959729231413,-0.34140187860437976,-0.70793587147571446,-1.6440507896308876],[-0.10486982721130822,-0.65408304876372358,1.1224481403063327,-0.49840438435711176,-1.1606248606278677,-1.3244125437105132],[0.16494171561903404,0.94788301174895984,0.058195998453626441,0.58732419551426451,0.79753786222894574,0.56647115925628277]]},{"curentActivationFunction":0,"nodeCount":6,"outputCount":4,"Weights":[[0.23875488119141886,-1.0524977499397927,-0.86669837397835137,0.64321243932620265],[-0.97359369321427947,-0.10257489308834777,0.84968719182055785,0.72361213235352762],[0.41841242179200638,0.50059243920286756,0.54214667530830329,-0.25250447855913294],[0.21398580223973185,2.3174635203134129,0.76098965632775306,0.67759675680547793],[-0.90844571376612682,-0.017102525703972415,0.86310057694464992,-0.41509675929094514],[0.27670287260632165,0.52794971929107437,2.4576959347213587,1.0386666277035197],[-0.67787256076832891,-0.90460733692376283,-0.2848865379508988,-0.40482609295510974]]},{"curentActivationFunction":0,"nodeCount":4,"outputCount":2,"Weights":[[-0.94051716233916671,-0.32189065861603738],[-0.69621868976215773,0.58877955381236013],[0.29777738256276476,1.7206067776275165],[0.70893714260395879,-0.71173430989111508],[0.88792410301413582,-0.18811457543080418]]}]}