{"topology":[6,6,4,2],"layers":[{"nodeCount":6,"outputCount":6,"Weights":[[0.89477926022130028,0.27912347543943827,0.79342541275239808,-0.41537815957114943,-0.86951722105476881,0.90220591607606315],[0.360230786427963,-0.73494355368192466,0.63304001075822858,0.5878280389997308,0.70701878876752167,-0.38257843879171571],[-0.32722345894538962,-0.2686486753023456,-0.10816193609878511,0.39519297862201608,-0.14260605496475753,0.4818721690596417],[0.36468034208038835,-0.74100100516388245,-0.879125813897292,0.39773841639875362,-0.052946271865138006,0.24397164827397644],[-0.042840421685409025,0.28392990831468712,0.41718575331251406,0.57199041897989367,-0.27132105048341726,-0.71232809764907135],[0.98528097569257067,0.2570854524416315,0.53818063043904529,0.54792181288261044,-0.72582427678900974,-0.1937844870583082],[-0.79000127305742418,-0.60052330121422348,-0.65605238064008409,0.24692195153186192,-0.017271040481175781,-0.17085178437216753]]},{"nodeCount":6,"outputCount":4,"Weights":[[0.13195504114588497,0.9739865632606608,0.77852109623072718,-0.30034165051781647],[0.51294719218879337,0.097083994698284215,-0.81277267626150174,-0.970855679349441],[0.33990758812982014,0.15483227519077825,0.78180575733157154,-0.85671575733307548],[-0.89212601440592021,-0.36230619222033122,0.7409428450003932,-0.75449640013021246],[-0.68955388278213969,0.3242672660035395,0.69220718913348733,-0.039245912357813606],[0.92110882695815932,-0.61388194077363334,-0.39490092051909353,-0.12212942686031081],[0.48546652006239932,-0.30121002220605031,-0.04716977153307278,-0.80782028558096863]]},{"nodeCount":4,"outputCount":2,"Weights":[[0.88224578643322271,0.76030995033695836],[0.29464484532114343,0.3355360214298293],[-0.08090859329370248,-0.0339580890880703],[0.61593265906718209,-0.19623051453206242],[0.13609766267989643,-0.6805342294650778]]}]}