{"topology":[6,6,4,2],"layers":[{"nodeCount":6,"outputCount":6,"Weights":[[0.10348849003365651,-0.021941192225525707,0.718781081595822,0.20659918673643807,0.36975757352530847,-0.76148471388103667],[0.37535396491892353,0.77003898810131433,1.1976433814026617,0.40815451899923127,0.11994392686520877,-0.75285534944983912],[0.055013054541783957,0.32559747031219177,0.57734308814506186,-0.43820206771520986,-0.49216961580895335,-0.85936715703428124],[-0.21553521380551866,0.33146269076106261,0.41481880560276041,1.5102891332983455,-0.45184723751239819,-1.0641209015455659],[0.042916417607533064,-0.38942437660387919,-0.42269395521036068,-0.047753803919886151,0.4212016956513755,-0.68388059976691407],[-0.40156768327651904,-0.69884491139037763,-0.60528770536430543,0.68480454487018494,0.905546737790828,0.732357709543946],[1.2890137281683338,0.9858256808881769,-0.11048762761544795,-0.20080505064726106,1.1806197029913867,-0.31091683605262865]]},{"nodeCount":6,"outputCount":4,"Weights":[[-0.12768315110713402,0.16295168882373323,0.062219274026443838,-0.78273137532301784],[0.24777400202479871,0.57890554986843157,0.11856377805516305,-1.4002376750112688],[0.33696170539453707,-0.603693489732078,-0.066470955063808179,-0.64156909712663346],[-0.032239296954236552,0.26532218082124465,-0.31293764142922015,-0.677062178811553],[-0.902442105069031,0.19599560634046581,0.13318439742232879,-0.97043873554581717],[0.80170291839246777,0.16261985672759821,0.68875088528206141,-0.45852921016445808],[-0.23670531936767758,0.8920613657180505,1.3777232244041389,0.35485236526227204]]},{"nodeCount":4,"outputCount":2,"Weights":[[0.23970529401661134,-0.28276270734274889],[0.15721818136853088,-1.3297441226103084],[0.47645998768343589,0.29032336142394838],[0.058835111585834654,0.33228051142407616],[-0.066413116439438036,-1.1661516438080703]]}]}