{"topology":[6,6,4,2],"layers":[{"curentActivationFunction":0,"nodeCount":6,"outputCount":6,"Weights":[[0.21786416122590385,-1.2849349904735272,0.02763719508780027,0.37042300187536648,0.6063252885855388,0.61838112055248651],[1.7303590817518342,0.25324308045825128,0.439008361398712,-0.42421601127098135,1.2140181575501423,-0.48411527158884121],[0.16736159411601792,1.1239901036601467,-0.28530840100036392,0.23049316170182688,-0.29875429174804785,0.42533505518237841],[-1.2893679993177614,1.1823573418345104,-0.655401384763141,1.22424516371649,-1.2499610175145608,1.055993719285351],[0.52059236099971107,0.19355203150471295,0.49615659820668245,0.83647995527669783,0.57341486381991535,-0.11222151951502135],[0.76397166134043193,-0.51921657613442129,0.054983739766750528,0.32600561777409426,-1.5717390375545899,-0.57235358356142108],[-1.2111858265526527,-0.49392034648634509,-0.17488643511891666,-0.032899756232695365,-1.9906797914256713,-0.2737199257936887]]},{"curentActivationFunction":0,"nodeCount":6,"outputCount":4,"Weights":[[-0.22455593371975968,0.25884918484783231,-1.2578157185380421,-1.2559776807930216],[0.20378020368692468,-0.56916748945096862,0.9378887701024714,0.17720212120432516],[0.14834822162443223,1.1049159223236682,-1.9732534889938558,1.5909759139600097],[0.64006266004408841,0.21447304646227178,-0.26047840121224441,0.56445472364521332],[1.4062423407594868,0.59969926490434422,-0.56813278308516968,0.778665760894616],[-1.5535682556468844,-0.5297380762778866,-0.33333307101080811,-0.063018911314671355],[-0.39654026222254168,-0.064684713755121692,0.95202412803285952,-1.0892420232245894]]},{"curentActivationFunction":1,"nodeCount":4,"outputCount":2,"Weights":[[0.60920674731452329,0.2259480001991373],[0.10435509244182867,1.2763558527344629],[0.54240208493657494,0.33534867588214046],[0.63915669319180612,0.63577165111702472],[1.9329304932304334,0.23924063995445172]]}]}