{"topology":[6,6,4,2],"layers":[{"curentActivationFunction":0,"nodeCount":6,"outputCount":6,"Weights":[[-0.33976274226970038,-0.8556728679014709,-2.4493075190422622,0.51610302460866053,0.41199318458671386,0.50747248041791493],[1.6159336104302648,-4.2469039925213679,-0.460727442445636,1.2694361728903796,1.2044520102745744,-2.3938840137893997],[1.7184393006966687,2.0202263849694329,-3.1715453569396805,-0.94534969979214933,-0.6191538742053122,0.57520044565521],[0.13063358890157184,-0.0445678665092375,-2.4734339777796404,1.4440922538135756,-0.074653102585418685,1.9109288345629705],[-4.3855641939472738,0.685479876248533,-1.446769982641948,2.2152491450672223,-0.7493605298716266,-2.7954634326752252],[-1.3217926401631985,1.5111852735513052,-3.5547247988847919,1.8011530791265815,-0.74607797141469923,-1.6396055157518741],[-3.278323729644343,-1.4811806002082055,0.327011293418245,1.5024431065942476,1.6894166285935559,2.6726016486361646]]},{"curentActivationFunction":0,"nodeCount":6,"outputCount":4,"Weights":[[2.0772823800762046,-2.9596688243480367,0.97721470740106608,1.3400631559501217],[1.7376480217175623,-0.290217880760421,-0.41122751672747104,-1.2071389724552022],[1.7302413938927743,0.71710507641066257,-0.85943809124589143,-0.93198738683616433],[1.0017825212169011,0.33871626805436605,1.1596932431841815,-2.2098427922045922],[0.96468468358027037,0.8915142972914103,0.87786196459688826,-3.1909283166389173],[-0.9651764321347811,-0.96895480780749588,0.91554164253898973,-1.065764382282925],[0.88296854480325593,3.0526798100927204,-4.9940642427607678,-0.28278277687857989]]},{"curentActivationFunction":0,"nodeCount":4,"outputCount":2,"Weights":[[0.27603900752718225,3.4312346789910073],[0.22588047649300913,0.61879466828834007],[0.94830643848902851,-0.53548789747780556],[-1.4037134851505686,-0.9205054584520429],[0.9092171368697739,-1.0001446038099502]]}]}