{"topology":[6,6,4,2],"layers":[{"curentActivationFunction":0,"nodeCount":6,"outputCount":6,"Weights":[[-0.46968895172220132,1.1108178319925526,-0.88284974889031131,1.1981118790330887,2.1004136780278819,-0.05664167066879644],[-0.47737624844413984,-0.07666672373966632,-0.80014391141019015,-0.19845068929644794,-0.32021219461234857,1.2816590216391064],[-0.96104963238399921,2.006914382105188,-0.21597461715153171,-0.36527337197459925,-0.24393558932651582,-0.49029548116507726],[0.32684859718515014,0.79777513295308455,1.2148891592933282,-1.1176948547911341,-0.067418242836100317,0.86615405807558155],[1.3058879309361278,0.11882455675807996,1.7670615244503418,0.077271699941377947,0.041661428074194706,0.61807286954395146],[1.0894801896482151,0.89172510937402261,1.8830520272641684,0.10300728846481411,-0.52011835040530119,0.38909428980624977],[0.14408225572858124,1.0470903285532678,-0.12164357240388346,0.70855726614061609,0.97263554622076254,-0.98818405810193344]]},{"curentActivationFunction":0,"nodeCount":6,"outputCount":4,"Weights":[[-0.52767536091975664,0.4870403951439265,-0.40912890616298137,1.2639918125998193],[-1.2904229586899387,0.51637238800356733,0.18888396452594725,-0.86189235554164867],[0.6381808261564843,-0.0040379441362051738,2.5161460524034434,1.0554087120366322],[-0.98222901787712646,0.55625456481066293,-0.32586917738703514,-0.28773157614643285],[1.4189087762119756,-0.38594559621342706,-1.3911368660121863,0.31657675016512021],[-0.653007980972998,0.59469595043673,-1.4510419238130756,-0.12865341670282809],[-1.1153525352083855,0.76755501598471532,0.34831359044104526,0.87468895519836287]]},{"curentActivationFunction":1,"nodeCount":4,"outputCount":2,"Weights":[[-0.84699488750053353,-0.21627444155340747],[0.50462611578620331,0.93921540674716963],[0.62030290328911641,0.29469364545992272],[0.496475594349427,0.060815260308242969],[2.2198850867431075,0.67814957638184992]]}]}