{"topology":[6,6,4,2],"layers":[{"curentActivationFunction":0,"nodeCount":6,"outputCount":6,"Weights":[[-0.20219366191988508,0.15061699280078389,-0.69315515397729122,0.67988672441797648,1.2845534795357629,-0.05664167066879644],[-0.86538080818270346,-0.25965604011884713,-0.73577159304906226,-0.27742889280311234,0.036423298780072166,0.65913774429780336],[-0.67161520788055618,1.4883160171975922,0.1242967472059171,0.0045214951990737995,-0.38441735174712621,-0.11801259853784579],[0.26005784480835215,0.7406379642154266,1.5623334793198544,-1.3706908190486444,-0.56188188659114857,1.129157281540873],[1.7815924295138532,0.1439987256396556,1.2392189652841625,0.077271699941377947,-0.036651187593420564,0.61807286954395146],[1.8014653831727179,0.41394632259101904,0.95991437950167535,0.58651919690264354,-0.56422899713005359,0.63353620964732782],[0.29012415734591168,1.3753335265793527,0.15392730345666739,0.2650597257376926,0.44498123482101659,-0.54912039779551347]]},{"curentActivationFunction":0,"nodeCount":6,"outputCount":4,"Weights":[[-0.65892871662924479,0.38226372021355848,-0.40912890616298137,0.48368603828534773],[-1.0690827768152034,0.12477278622089549,0.018739959466615552,-0.930634211483707],[-0.050571382069295012,-0.48822488961193011,2.1269607579461116,0.98550941072660925],[-0.84506861206380113,1.184682928344553,-0.32586917738703514,-0.53828637722799855],[1.2789715306269804,-0.114410787641262,-0.62756823358478409,-0.43386157319595176],[-0.70050035403133393,0.69579585999985971,-1.0811339554289048,0.013634954585523773],[-1.0156568149177621,1.0244409181291427,0.53564850196039715,0.51328625530623184]]},{"curentActivationFunction":0,"nodeCount":4,"outputCount":2,"Weights":[[-0.73032911039438542,-0.70977156665631169],[-0.077418577660535781,1.0355785892045026],[0.62030290328911641,0.4796926106697379],[0.496475594349427,0.79130977801573921],[1.2631058195899731,1.1755313608681464]]}]}