{"topology":[6,6,4,2],"layers":[{"nodeCount":6,"outputCount":6,"Weights":[[-0.20219366191988508,0.033395899708101529,-0.87960750580747027,0.67988672441797648,1.2845534795357629,-0.05664167066879644],[-1.2541326981755589,-0.727180794452867,-0.47746689989113578,-0.4970672233016542,0.29950353889702985,0.65913774429780336],[-0.2370857034051258,1.4499534263508178,0.1242967472059171,0.0045214951990737995,-0.7075335635838722,-0.11801259853784579],[0.26005784480835215,0.7406379642154266,1.1160420717746216,-1.3706908190486444,-0.54948469253698584,1.2788238319469725],[1.4323196983581035,0.1439987256396556,1.0954199249834844,0.077271699941377947,-0.036651187593420564,0.19636897728609348],[1.5598415821138034,0.61484605451805807,0.95991437950167535,0.58651919690264354,-0.56422899713005359,0.63353620964732782],[0.29012415734591168,0.991544653424781,0.28211804795177553,0.2650597257376926,0.72936966071341636,-0.27973044630127519]]},{"nodeCount":6,"outputCount":4,"Weights":[[-0.65892871662924479,0.38226372021355848,-0.40912890616298137,0.48368603828534773],[-1.0690827768152034,0.12477278622089549,0.36301813012129525,-1.1479298966694298],[-0.050571382069295012,-0.084962887263373921,2.1269607579461116,0.58958018761574293],[-0.84506861206380113,0.844146920761162,-0.70917396978902358,-0.53828637722799855],[0.891898888811422,-0.31306350944240735,-0.62756823358478409,-0.43386157319595176],[-0.70050035403133393,0.61751475097495823,-0.67134557928486971,0.013634954585523773],[-1.1797667800820277,0.79178304751021,0.53564850196039715,0.51328625530623184]]},{"nodeCount":4,"outputCount":2,"Weights":[[-0.73032911039438542,-0.897009818301075],[-0.077418577660535781,1.0355785892045026],[0.62030290328911641,0.4796926106697379],[0.496475594349427,0.79130977801573921],[1.2631058195899731,1.168531450754279]]}]}