{"topology":[6,6,4,2],"layers":[{"curentActivationFunction":0,"nodeCount":6,"outputCount":6,"Weights":[[-3.4792676954635091,2.5693178849489047,-5.9047035645873125,5.3044532176040669,2.5197880909067489,-5.8610251018095472],[7.3506105686479746,2.0802441568728076,-4.1716149182530273,-0.069694770177329168,5.3496506667621313,7.4246018644974994],[-1.5065035563168747,3.4050945777948103,-6.8366122226680446,3.3930421522419945,9.35563650822743,-3.3316361331378244],[6.1842508337332047,-1.3201672982191062,-1.2705711917231159,-0.38339065407893891,-0.37986812108707446,3.8186729637715988],[1.0317264138238487,-7.1949205957958409,1.7827936017119466,-0.37348505104677321,-2.4563948394018356,-2.3458231242418419],[4.0251077307747751,0.036879826412142713,4.7650907562757441,-1.0883200301544349,4.614969946111291,0.25502972882387487],[-3.3424041513525191,-6.0469153197499681,-0.0042358213439392944,4.3565141811855934,2.4021553878261335,-4.3343291838976468]]},{"curentActivationFunction":0,"nodeCount":6,"outputCount":4,"Weights":[[3.0064059600560418,2.8552765444839725,5.1644111497570968,2.6526070023412576],[-6.35354787254574,0.23221434869592072,6.0625484732206676,5.2422370748211806],[4.9744069403741982,-3.4611806510443723,3.0850297364934427,-1.6384779100660951],[-1.952432842880401,-1.8872575412538786,-4.330099734177673,5.834344049673339],[-1.1456145500581545,5.3624513575084123,7.6409836058811473,-5.1104489120144212],[0.28127186134154414,4.9816085067401348,-10.183663654801709,0.713346245226488],[-4.8136134476338164,3.2098652293004015,5.3670207413643016,3.6931225294734893]]},{"curentActivationFunction":0,"nodeCount":4,"outputCount":2,"Weights":[[-2.6794159810956488,5.1953050801303258],[0.92542223085239916,-0.96516452535535491],[-1.6614872358503072,1.1420636710342533],[-3.9818498212416293,-3.2074468147411856],[9.9636549533571177,5.3895942590747818]]}]}