{"topology":[6,6,4,2],"layers":[{"curentActivationFunction":0,"nodeCount":6,"outputCount":6,"Weights":[[-0.69552593012132014,-3.8541035283608851,-4.4711335233743927,3.7591284631095494,1.6401629259996884,0.010306363697306475],[0.83125167099351582,1.4025086836901066,-0.26680559188444419,0.65361452319361935,0.31028173203127535,2.2038518750126719],[-0.38437843666615823,2.173464583779436,-4.7683204693106562,-0.16497184111036906,3.4159794060587791,-1.0015271094169127],[-0.955922554226556,1.3125829199853272,-0.29151755002863577,-0.88106029847686218,0.0074825733934910654,0.79972995971316951],[-1.3034909746160226,-0.91067655380381107,1.863779656292768,0.19084354289380995,-0.77359571576751573,-3.6730817776048004],[4.5895346075247687,1.3205518344512923,1.3764562054427603,0.4815710666503622,3.5967655114814487,-0.44473233700018922],[0.68621523733540235,1.7318077665901779,2.7992078314065978,0.61241047089565981,5.6296442112092109,1.5293592894586543]]},{"curentActivationFunction":0,"nodeCount":6,"outputCount":4,"Weights":[[0.021552902889229619,1.6999017855617689,0.90581129673207739,-1.7063789536274867],[-6.9330224115089623,0.024475236667541256,-0.2841452147272161,1.7254086051720228],[3.0666305106443486,-2.852800303303078,2.2014882123104704,7.41592973396924],[-3.4302486648923938,-1.4377815476328979,-1.7392436639588533,1.6757900324537369],[1.7660669655381085,3.4636193767486225,-0.94534038656639874,1.1711683052923383],[-2.7260717792557885,3.1778066270881355,-5.3594746835806761,2.2436370375769394],[-4.4241442966387341,2.245521925504097,1.0050013854657307,3.9316632914969984]]},{"curentActivationFunction":0,"nodeCount":4,"outputCount":2,"Weights":[[-5.3719500447027153,2.0549285239795827],[1.1100794519810375,0.93921540674716963],[0.11121604340673236,1.0675506310386353],[1.2931937639569835,0.17735932775650137],[2.9071752773165582,0.298144172084585]]}]}